<?xml version="1.0"?>
<opencv_storage>
<stage20>
  <maxWeakCount>10</maxWeakCount>
  <stageThreshold>-9.3867129087448120e-01</stageThreshold>
  <weakClassifiers>
    <_>
      <internalNodes>
        0 -1 82115 -6.9262541830539703e-02</internalNodes>
      <leafValues>
        3.6170211434364319e-01 -4.6245059370994568e-01</leafValues></_>
    <_>
      <internalNodes>
        0 -1 100717 -2.4750173091888428e-02</internalNodes>
      <leafValues>
        4.7544449567794800e-01 -2.2260494530200958e-01</leafValues></_>
    <_>
      <internalNodes>
        0 -1 153943 -1.6526593826711178e-03</internalNodes>
      <leafValues>
        5.0344288349151611e-01 -2.5864785909652710e-01</leafValues></_>
    <_>
      <internalNodes>
        0 -1 39615 4.6024151146411896e-02</internalNodes>
      <leafValues>
        -1.2607154250144958e-01 7.6080310344696045e-01</leafValues></_>
    <_>
      <internalNodes>
        0 -1 36607 -4.0842700400389731e-05</internalNodes>
      <leafValues>
        3.7699455022811890e-01 -2.8193026781082153e-01</leafValues></_>
    <_>
      <internalNodes>
        0 -1 11621 -7.9865351319313049e-02</internalNodes>
      <leafValues>
        7.8545910120010376e-01 -1.2517048418521881e-01</leafValues></_>
    <_>
      <internalNodes>
        0 -1 143811 -1.4313424471765757e-03</internalNodes>
      <leafValues>
        4.5467296242713928e-01 -2.5348600745201111e-01</leafValues></_>
    <_>
      <internalNodes>
        0 -1 88493 2.3443216457962990e-02</internalNodes>
      <leafValues>
        -2.4243530631065369e-01 5.4257827997207642e-01</leafValues></_>
    <_>
      <internalNodes>
        0 -1 79679 -4.9458455760031939e-04</internalNodes>
      <leafValues>
        4.8405009508132935e-01 -2.6637983322143555e-01</leafValues></_>
    <_>
      <internalNodes>
        0 -1 150984 -8.2627130905166268e-04</internalNodes>
      <leafValues>
        6.2893742322921753e-01 -1.8255746364593506e-01</leafValues></_></weakClassifiers></stage20>
</opencv_storage>
