<?xml version="1.0"?>
<opencv_storage>
<stage2>
  <maxWeakCount>7</maxWeakCount>
  <stageThreshold>-1.0194267034530640e+00</stageThreshold>
  <weakClassifiers>
    <_>
      <internalNodes>
        0 -1 152843 4.8693139106035233e-02</internalNodes>
      <leafValues>
        -5.2895754575729370e-01 9.0243899822235107e-01</leafValues></_>
    <_>
      <internalNodes>
        0 -1 113107 -1.9812094047665596e-02</internalNodes>
      <leafValues>
        -9.7544181346893311e-01 1.4413309097290039e-01</leafValues></_>
    <_>
      <internalNodes>
        0 -1 2887 -4.2917913198471069e-01</internalNodes>
      <leafValues>
        4.8282188177108765e-01 -3.4414964914321899e-01</leafValues></_>
    <_>
      <internalNodes>
        0 -1 149990 -1.2119417078793049e-02</internalNodes>
      <leafValues>
        7.0045047998428345e-01 -2.8327023983001709e-01</leafValues></_>
    <_>
      <internalNodes>
        0 -1 124581 6.1736814677715302e-02</internalNodes>
      <leafValues>
        -3.0042052268981934e-01 5.6995326280593872e-01</leafValues></_>
    <_>
      <internalNodes>
        0 -1 9572 -1.7169650644063950e-02</internalNodes>
      <leafValues>
        6.7817866802215576e-01 -2.4461829662322998e-01</leafValues></_>
    <_>
      <internalNodes>
        0 -1 151524 3.3195838332176208e-03</internalNodes>
      <leafValues>
        -3.3251735568046570e-01 6.1120915412902832e-01</leafValues></_></weakClassifiers></stage2>
</opencv_storage>
