<?xml version="1.0"?>
<opencv_storage>
<stage15>
  <maxWeakCount>9</maxWeakCount>
  <stageThreshold>-5.8790487051010132e-01</stageThreshold>
  <weakClassifiers>
    <_>
      <internalNodes>
        0 -1 145257 5.6016828864812851e-02</internalNodes>
      <leafValues>
        -5.2100843191146851e-01 3.8709676265716553e-01</leafValues></_>
    <_>
      <internalNodes>
        0 -1 126864 6.4769503660500050e-04</internalNodes>
      <leafValues>
        -2.3788692057132721e-01 6.1724269390106201e-01</leafValues></_>
    <_>
      <internalNodes>
        0 -1 85780 4.3669241131283343e-04</internalNodes>
      <leafValues>
        -2.3384208977222443e-01 5.3288251161575317e-01</leafValues></_>
    <_>
      <internalNodes>
        0 -1 105907 6.8763946183025837e-04</internalNodes>
      <leafValues>
        -2.4319712817668915e-01 5.2928626537322998e-01</leafValues></_>
    <_>
      <internalNodes>
        0 -1 161591 -2.8946305974386632e-05</internalNodes>
      <leafValues>
        3.6929067969322205e-01 -3.8324403762817383e-01</leafValues></_>
    <_>
      <internalNodes>
        0 -1 16491 -6.0242522507905960e-02</internalNodes>
      <leafValues>
        7.3231095075607300e-01 -1.7877581715583801e-01</leafValues></_>
    <_>
      <internalNodes>
        0 -1 32613 1.5741855604574084e-03</internalNodes>
      <leafValues>
        -2.6207834482192993e-01 5.0545936822891235e-01</leafValues></_>
    <_>
      <internalNodes>
        0 -1 96180 -9.0975230559706688e-03</internalNodes>
      <leafValues>
        -6.4521998167037964e-01 2.3962171375751495e-01</leafValues></_>
    <_>
      <internalNodes>
        0 -1 143357 3.1264300923794508e-04</internalNodes>
      <leafValues>
        -2.8384092450141907e-01 5.0968354940414429e-01</leafValues></_></weakClassifiers></stage15>
</opencv_storage>
