<?xml version="1.0"?>
<opencv_storage>
<stage18>
  <maxWeakCount>8</maxWeakCount>
  <stageThreshold>-7.5925892591476440e-01</stageThreshold>
  <weakClassifiers>
    <_>
      <internalNodes>
        0 -1 120643 -1.5683915466070175e-02</internalNodes>
      <leafValues>
        -4.9790793657302856e-01 3.1147539615631104e-01</leafValues></_>
    <_>
      <internalNodes>
        0 -1 2256 -2.6481516659259796e-02</internalNodes>
      <leafValues>
        5.6853717565536499e-01 -2.4209764599800110e-01</leafValues></_>
    <_>
      <internalNodes>
        0 -1 8960 -7.1973418816924095e-03</internalNodes>
      <leafValues>
        -5.4051882028579712e-01 2.2834615409374237e-01</leafValues></_>
    <_>
      <internalNodes>
        0 -1 58129 -6.5019284375011921e-04</internalNodes>
      <leafValues>
        4.6308228373527527e-01 -2.7993476390838623e-01</leafValues></_>
    <_>
      <internalNodes>
        0 -1 33206 -1.5807670934009366e-05</internalNodes>
      <leafValues>
        3.6006805300712585e-01 -3.5184493660926819e-01</leafValues></_>
    <_>
      <internalNodes>
        0 -1 70721 -6.0583819868043065e-04</internalNodes>
      <leafValues>
        -7.0354682207107544e-01 2.2208708524703979e-01</leafValues></_>
    <_>
      <internalNodes>
        0 -1 60516 1.8069304060190916e-03</internalNodes>
      <leafValues>
        2.0511427521705627e-01 -6.6435694694519043e-01</leafValues></_>
    <_>
      <internalNodes>
        0 -1 161909 4.1373810381628573e-04</internalNodes>
      <leafValues>
        1.7069976031780243e-01 -6.7003148794174194e-01</leafValues></_></weakClassifiers></stage18>
</opencv_storage>
