<?xml version="1.0"?>
<opencv_storage>
<stage25>
  <maxWeakCount>6</maxWeakCount>
  <stageThreshold>-9.7661197185516357e-01</stageThreshold>
  <weakClassifiers>
    <_>
      <internalNodes>
        0 -1 2612 -9.6221074461936951e-02</internalNodes>
      <leafValues>
        1. -4.8148149251937866e-01</leafValues></_>
    <_>
      <internalNodes>
        0 -1 126944 -5.4211453534662724e-03</internalNodes>
      <leafValues>
        8.0044972896575928e-01 -3.0304980278015137e-01</leafValues></_>
    <_>
      <internalNodes>
        0 -1 92666 -1.0129749774932861e-02</internalNodes>
      <leafValues>
        -5.5123561620712280e-01 4.0228697657585144e-01</leafValues></_>
    <_>
      <internalNodes>
        0 -1 70597 -3.7837517447769642e-04</internalNodes>
      <leafValues>
        5.7797151803970337e-01 -3.6746057868003845e-01</leafValues></_>
    <_>
      <internalNodes>
        0 -1 158199 1.9233781844377518e-02</internalNodes>
      <leafValues>
        -2.1827675402164459e-01 8.6131334304809570e-01</leafValues></_>
    <_>
      <internalNodes>
        0 -1 69345 -2.3111454211175442e-03</internalNodes>
      <leafValues>
        -5.3658920526504517e-01 4.0240103006362915e-01</leafValues></_></weakClassifiers></stage25>
</opencv_storage>
