<?xml version="1.0"?>
<opencv_storage>
<stage4>
  <maxWeakCount>7</maxWeakCount>
  <stageThreshold>-8.0430799722671509e-01</stageThreshold>
  <weakClassifiers>
    <_>
      <internalNodes>
        0 -1 50250 -1.5419735014438629e-01</internalNodes>
      <leafValues>
        2.8571429848670959e-01 -5.2173912525177002e-01</leafValues></_>
    <_>
      <internalNodes>
        0 -1 1110 -2.5958395563066006e-03</internalNodes>
      <leafValues>
        -9.2080563306808472e-01 1.0773277282714844e-01</leafValues></_>
    <_>
      <internalNodes>
        0 -1 50390 3.8739584852010012e-04</internalNodes>
      <leafValues>
        -3.3718255162239075e-01 4.2860040068626404e-01</leafValues></_>
    <_>
      <internalNodes>
        0 -1 162107 -4.8347227275371552e-02</internalNodes>
      <leafValues>
        -9.0793007612228394e-01 1.5722894668579102e-01</leafValues></_>
    <_>
      <internalNodes>
        0 -1 97895 -1.1573316529393196e-02</internalNodes>
      <leafValues>
        4.1308516263961792e-01 -3.6934620141983032e-01</leafValues></_>
    <_>
      <internalNodes>
        0 -1 22814 -3.7347011268138885e-02</internalNodes>
      <leafValues>
        6.3588452339172363e-01 -2.7255365252494812e-01</leafValues></_>
    <_>
      <internalNodes>
        0 -1 6665 4.5829670852981508e-05</internalNodes>
      <leafValues>
        -3.3423107862472534e-01 4.3859186768531799e-01</leafValues></_></weakClassifiers></stage4>
</opencv_storage>
