<?xml version="1.0"?>
<opencv_storage>
<stage11>
  <maxWeakCount>6</maxWeakCount>
  <stageThreshold>-1.1257829666137695e+00</stageThreshold>
  <weakClassifiers>
    <_>
      <internalNodes>
        0 -1 26774 -7.1481384336948395e-02</internalNodes>
      <leafValues>
        5.5844157934188843e-01 -6.4125561714172363e-01</leafValues></_>
    <_>
      <internalNodes>
        0 -1 52368 -3.8619917631149292e-01</internalNodes>
      <leafValues>
        6.7186850309371948e-01 -4.4659486413002014e-01</leafValues></_>
    <_>
      <internalNodes>
        0 -1 80091 -2.1500434726476669e-02</internalNodes>
      <leafValues>
        5.8805114030838013e-01 -3.3196553587913513e-01</leafValues></_>
    <_>
      <internalNodes>
        0 -1 308 -7.6055184006690979e-02</internalNodes>
      <leafValues>
        8.4470427036285400e-01 -2.1800264716148376e-01</leafValues></_>
    <_>
      <internalNodes>
        0 -1 20939 -6.6749297548085451e-04</internalNodes>
      <leafValues>
        -8.2631903886795044e-01 2.9473155736923218e-01</leafValues></_>
    <_>
      <internalNodes>
        0 -1 162120 -4.4470379361882806e-04</internalNodes>
      <leafValues>
        -8.0696970224380493e-01 2.1730408072471619e-01</leafValues></_></weakClassifiers></stage11>
</opencv_storage>
